<?xml version="1.0"?>
<opencv_storage>
<cascade>
  <stageType>BOOST</stageType>
  <featureType>HAAR</featureType>
  <height>24</height>
  <width>24</width>
  <stageParams>
    <boostType>GAB</boostType>
    <minHitRate>9.9500000476837158e-01</minHitRate>
    <maxFalseAlarm>5.0000000000000000e-01</maxFalseAlarm>
    <weightTrimRate>9.4999998807907104e-01</weightTrimRate>
    <maxDepth>1</maxDepth>
    <maxWeakCount>100</maxWeakCount></stageParams>
  <featureParams>
    <maxCatCount>0</maxCatCount>
    <featSize>1</featSize>
    <mode>BASIC</mode></featureParams>
  <stageNum>5</stageNum>
  <stages>
    <!-- stage 0 -->
    <_>
      <maxWeakCount>1</maxWeakCount>
      <stageThreshold>7.9166668653488159e-01</stageThreshold>
      <weakClassifiers>
        <_>
          <internalNodes>
            0 -1 1 9.0304560959339142e-02</internalNodes>
          <leafValues>
            -1. 7.9166668653488159e-01</leafValues></_></weakClassifiers></_>
    <!-- stage 1 -->
    <_>
      <maxWeakCount>3</maxWeakCount>
      <stageThreshold>-1.2426954507827759e+00</stageThreshold>
      <weakClassifiers>
        <_>
          <internalNodes>
            0 -1 7 -7.3975384235382080e-02</internalNodes>
          <leafValues>
            6.0869562625885010e-01 -9.8796391487121582e-01</leafValues></_>
        <_>
          <internalNodes>
            0 -1 8 2.9429422691464424e-02</internalNodes>
          <leafValues>
            -9.8280745744705200e-01 4.3397882580757141e-01</leafValues></_>
        <_>
          <internalNodes>
            0 -1 0 -1.5315641462802887e-01</internalNodes>
          <leafValues>
            7.2807592153549194e-01 -9.4702202081680298e-01</leafValues></_></weakClassifiers></_>
    <!-- stage 2 -->
    <_>
      <maxWeakCount>3</maxWeakCount>
      <stageThreshold>-1.1933153867721558e+00</stageThreshold>
      <weakClassifiers>
        <_>
          <internalNodes>
            0 -1 4 6.2727920711040497e-02</internalNodes>
          <leafValues>
            -9.9400597810745239e-01 9.0476191043853760e-01</leafValues></_>
        <_>
          <internalNodes>
            0 -1 6 -4.9252610653638840e-02</internalNodes>
          <leafValues>
            8.9466756582260132e-01 -9.7710967063903809e-01</leafValues></_>
        <_>
          <internalNodes>
            0 -1 11 -2.1131429821252823e-02</internalNodes>
          <leafValues>
            7.7780032157897949e-01 -9.5939660072326660e-01</leafValues></_></weakClassifiers></_>
    <!-- stage 3 -->
    <_>
      <maxWeakCount>3</maxWeakCount>
      <stageThreshold>-1.3168724775314331e+00</stageThreshold>
      <weakClassifiers>
        <_>
          <internalNodes>
            0 -1 5 -9.7026154398918152e-02</internalNodes>
          <leafValues>
            1. -9.5503419637680054e-01</leafValues></_>
        <_>
          <internalNodes>
            0 -1 10 1.0495929047465324e-02</internalNodes>
          <leafValues>
            -8.7311738729476929e-01 9.3391793966293335e-01</leafValues></_>
        <_>
          <internalNodes>
            0 -1 3 4.3585156090557575e-03</internalNodes>
          <leafValues>
            -9.8489797115325928e-01 5.1127910614013672e-01</leafValues></_></weakClassifiers></_>
    <!-- stage 4 -->
    <_>
      <maxWeakCount>3</maxWeakCount>
      <stageThreshold>-1.0373160839080811e+00</stageThreshold>
      <weakClassifiers>
        <_>
          <internalNodes>
            0 -1 2 8.0437675118446350e-02</internalNodes>
          <leafValues>
            -9.7238659858703613e-01 1.</leafValues></_>
        <_>
          <internalNodes>
            0 -1 9 1.5828289091587067e-02</internalNodes>
          <leafValues>
            -9.7241753339767456e-01 1.</leafValues></_>
        <_>
          <internalNodes>
            0 -1 12 -3.0878044664859772e-02</internalNodes>
          <leafValues>
            9.0748804807662964e-01 -8.4737783670425415e-01</leafValues></_></weakClassifiers></_></stages>
  <features>
    <_>
      <rects>
        <_>
          1 3 9 13 -1.</_>
        <_>
          4 3 3 13 3.</_></rects>
      <tilted>0</tilted></_>
    <_>
      <rects>
        <_>
          5 9 15 6 -1.</_>
        <_>
          10 9 5 6 3.</_></rects>
      <tilted>0</tilted></_>
    <_>
      <rects>
        <_>
          6 3 15 5 -1.</_>
        <_>
          11 3 5 5 3.</_></rects>
      <tilted>0</tilted></_>
    <_>
      <rects>
        <_>
          6 11 13 3 -1.</_>
        <_>
          6 12 13 1 3.</_></rects>
      <tilted>0</tilted></_>
    <_>
      <rects>
        <_>
          7 8 7 9 -1.</_>
        <_>
          7 11 7 3 3.</_></rects>
      <tilted>0</tilted></_>
    <_>
      <rects>
        <_>
          7 12 10 6 -1.</_>
        <_>
          7 14 10 2 3.</_></rects>
      <tilted>0</tilted></_>
    <_>
      <rects>
        <_>
          8 6 7 6 -1.</_>
        <_>
          8 8 7 2 3.</_></rects>
      <tilted>0</tilted></_>
    <_>
      <rects>
        <_>
          8 6 11 6 -1.</_>
        <_>
          8 8 11 2 3.</_></rects>
      <tilted>0</tilted></_>
    <_>
      <rects>
        <_>
          8 15 9 6 -1.</_>
        <_>
          8 17 9 2 3.</_></rects>
      <tilted>0</tilted></_>
    <_>
      <rects>
        <_>
          9 17 5 6 -1.</_>
        <_>
          9 19 5 2 3.</_></rects>
      <tilted>0</tilted></_>
    <_>
      <rects>
        <_>
          10 22 6 2 -1.</_>
        <_>
          10 23 6 1 2.</_></rects>
      <tilted>0</tilted></_>
    <_>
      <rects>
        <_>
          14 19 9 2 -1.</_>
        <_>
          17 19 3 2 3.</_></rects>
      <tilted>0</tilted></_>
    <_>
      <rects>
        <_>
          17 15 6 7 -1.</_>
        <_>
          19 15 2 7 3.</_></rects>
      <tilted>0</tilted></_></features></cascade>
</opencv_storage>
