<?xml version="1.0"?>
<opencv_storage>
<cascade>
  <stageType>BOOST</stageType>
  <featureType>HAAR</featureType>
  <height>20</height>
  <width>50</width>
  <stageParams>
    <boostType>GAB</boostType>
    <minHitRate>9.9500000476837158e-01</minHitRate>
    <maxFalseAlarm>5.0000000000000000e-01</maxFalseAlarm>
    <weightTrimRate>9.4999998807907104e-01</weightTrimRate>
    <maxDepth>1</maxDepth>
    <maxWeakCount>100</maxWeakCount></stageParams>
  <featureParams>
    <maxCatCount>0</maxCatCount>
    <featSize>1</featSize>
    <mode>BASIC</mode></featureParams>
  <stageNum>13</stageNum>
  <stages>
    <!-- stage 0 -->
    <_>
      <maxWeakCount>2</maxWeakCount>
      <stageThreshold>-5.2902901172637939e-01</stageThreshold>
      <weakClassifiers>
        <_>
          <internalNodes>
            0 -1 24 4.0091887116432190e-02</internalNodes>
          <leafValues>
            -9.5284873247146606e-01 8.5365855693817139e-01</leafValues></_>
        <_>
          <internalNodes>
            0 -1 27 -1.1702910996973515e-02</internalNodes>
          <leafValues>
            4.2381972074508667e-01 -1.</leafValues></_></weakClassifiers></_>
    <!-- stage 1 -->
    <_>
      <maxWeakCount>3</maxWeakCount>
      <stageThreshold>-1.5525039434432983e+00</stageThreshold>
      <weakClassifiers>
        <_>
          <internalNodes>
            0 -1 18 -4.1477814316749573e-02</internalNodes>
          <leafValues>
            5.2688169479370117e-01 -9.4240319728851318e-01</leafValues></_>
        <_>
          <internalNodes>
            0 -1 43 4.3576154857873917e-03</internalNodes>
          <leafValues>
            -9.3710327148437500e-01 2.6928386092185974e-01</leafValues></_>
        <_>
          <internalNodes>
            0 -1 11 -1.3798776082694530e-02</internalNodes>
          <leafValues>
            3.2700252532958984e-01 -1.</leafValues></_></weakClassifiers></_>
    <!-- stage 2 -->
    <_>
      <maxWeakCount>4</maxWeakCount>
      <stageThreshold>-2.1473786830902100e+00</stageThreshold>
      <weakClassifiers>
        <_>
          <internalNodes>
            0 -1 8 -5.5166669189929962e-02</internalNodes>
          <leafValues>
            6.0000002384185791e-01 -9.2195123434066772e-01</leafValues></_>
        <_>
          <internalNodes>
            0 -1 2 -1.4382561668753624e-02</internalNodes>
          <leafValues>
            5.4318147897720337e-01 -8.2793182134628296e-01</leafValues></_>
        <_>
          <internalNodes>
            0 -1 44 1.0049125412479043e-03</internalNodes>
          <leafValues>
            -8.5299253463745117e-01 4.4685441255569458e-01</leafValues></_>
        <_>
          <internalNodes>
            0 -1 26 1.0316383093595505e-02</internalNodes>
          <leafValues>
            -8.7689340114593506e-01 4.5549684762954712e-01</leafValues></_></weakClassifiers></_>
    <!-- stage 3 -->
    <_>
      <maxWeakCount>4</maxWeakCount>
      <stageThreshold>-2.2470877170562744e+00</stageThreshold>
      <weakClassifiers>
        <_>
          <internalNodes>
            0 -1 29 -4.4470578432083130e-02</internalNodes>
          <leafValues>
            3.7349396944046021e-01 -9.1543757915496826e-01</leafValues></_>
        <_>
          <internalNodes>
            0 -1 42 5.5587291717529297e-03</internalNodes>
          <leafValues>
            -8.8205152750015259e-01 3.1243249773979187e-01</leafValues></_>
        <_>
          <internalNodes>
            0 -1 32 2.3353635333478451e-03</internalNodes>
          <leafValues>
            -7.6323097944259644e-01 4.4115382432937622e-01</leafValues></_>
        <_>
          <internalNodes>
            0 -1 16 6.9173291558399796e-04</internalNodes>
          <leafValues>
            -1. 3.1363230943679810e-01</leafValues></_></weakClassifiers></_>
    <!-- stage 4 -->
    <_>
      <maxWeakCount>3</maxWeakCount>
      <stageThreshold>-1.3111650943756104e+00</stageThreshold>
      <weakClassifiers>
        <_>
          <internalNodes>
            0 -1 46 2.8321949765086174e-02</internalNodes>
          <leafValues>
            -8.8804554939270020e-01 7.8260868787765503e-01</leafValues></_>
        <_>
          <internalNodes>
            0 -1 39 -1.8706394359469414e-02</internalNodes>
          <leafValues>
            5.7265752553939819e-01 -7.1934360265731812e-01</leafValues></_>
        <_>
          <internalNodes>
            0 -1 33 9.5855630934238434e-04</internalNodes>
          <leafValues>
            -9.7322082519531250e-01 2.9622405767440796e-01</leafValues></_></weakClassifiers></_>
    <!-- stage 5 -->
    <_>
      <maxWeakCount>4</maxWeakCount>
      <stageThreshold>-2.1553614139556885e+00</stageThreshold>
      <weakClassifiers>
        <_>
          <internalNodes>
            0 -1 1 3.5238943994045258e-02</internalNodes>
          <leafValues>
            -8.8761901855468750e-01 6.3999998569488525e-01</leafValues></_>
        <_>
          <internalNodes>
            0 -1 41 6.1614424921572208e-03</internalNodes>
          <leafValues>
            -8.8460934162139893e-01 2.0465819537639618e-01</leafValues></_>
        <_>
          <internalNodes>
            0 -1 15 -2.2937558591365814e-02</internalNodes>
          <leafValues>
            5.1378524303436279e-01 -7.1405917406082153e-01</leafValues></_>
        <_>
          <internalNodes>
            0 -1 30 1.3536378974094987e-03</internalNodes>
          <leafValues>
            -9.9478894472122192e-01 3.3092606067657471e-01</leafValues></_></weakClassifiers></_>
    <!-- stage 6 -->
    <_>
      <maxWeakCount>3</maxWeakCount>
      <stageThreshold>-1.4246072769165039e+00</stageThreshold>
      <weakClassifiers>
        <_>
          <internalNodes>
            0 -1 6 -2.5248847901821136e-02</internalNodes>
          <leafValues>
            3.3333334326744080e-01 -9.0243899822235107e-01</leafValues></_>
        <_>
          <internalNodes>
            0 -1 37 -2.7430165559053421e-02</internalNodes>
          <leafValues>
            4.7815713286399841e-01 -7.9365551471710205e-01</leafValues></_>
        <_>
          <internalNodes>
            0 -1 25 1.3618273660540581e-03</internalNodes>
          <leafValues>
            2.7148717641830444e-01 -9.6729218959808350e-01</leafValues></_></weakClassifiers></_>
    <!-- stage 7 -->
    <_>
      <maxWeakCount>3</maxWeakCount>
      <stageThreshold>-1.3145292997360229e+00</stageThreshold>
      <weakClassifiers>
        <_>
          <internalNodes>
            0 -1 19 -5.2639655768871307e-02</internalNodes>
          <leafValues>
            2.2499999403953552e-01 -8.9999997615814209e-01</leafValues></_>
        <_>
          <internalNodes>
            0 -1 21 5.2423257380723953e-02</internalNodes>
          <leafValues>
            -6.4832693338394165e-01 5.7368856668472290e-01</leafValues></_>
        <_>
          <internalNodes>
            0 -1 34 3.4681739634834230e-04</internalNodes>
          <leafValues>
            -8.9120233058929443e-01 3.6061012744903564e-01</leafValues></_></weakClassifiers></_>
    <!-- stage 8 -->
    <_>
      <maxWeakCount>5</maxWeakCount>
      <stageThreshold>-1.9423803091049194e+00</stageThreshold>
      <weakClassifiers>
        <_>
          <internalNodes>
            0 -1 4 7.7960379421710968e-02</internalNodes>
          <leafValues>
            -8.8538682460784912e-01 5.0943398475646973e-01</leafValues></_>
        <_>
          <internalNodes>
            0 -1 5 -1.0997296310961246e-02</internalNodes>
          <leafValues>
            2.3834715783596039e-01 -7.4521422386169434e-01</leafValues></_>
        <_>
          <internalNodes>
            0 -1 23 2.2188501316122711e-04</internalNodes>
          <leafValues>
            -1. 2.2477538883686066e-01</leafValues></_>
        <_>
          <internalNodes>
            0 -1 31 1.9890405237674713e-03</internalNodes>
          <leafValues>
            -8.2001882791519165e-01 2.3869933187961578e-01</leafValues></_>
        <_>
          <internalNodes>
            0 -1 10 8.7907700799405575e-04</internalNodes>
          <leafValues>
            -9.3742918968200684e-01 2.8346413373947144e-01</leafValues></_></weakClassifiers></_>
    <!-- stage 9 -->
    <_>
      <maxWeakCount>5</maxWeakCount>
      <stageThreshold>-1.6877422332763672e+00</stageThreshold>
      <weakClassifiers>
        <_>
          <internalNodes>
            0 -1 45 8.4131862968206406e-03</internalNodes>
          <leafValues>
            -8.7017875909805298e-01 6.7567569017410278e-01</leafValues></_>
        <_>
          <internalNodes>
            0 -1 20 2.3232160136103630e-02</internalNodes>
          <leafValues>
            -6.6920948028564453e-01 4.7398710250854492e-01</leafValues></_>
        <_>
          <internalNodes>
            0 -1 14 8.3486120274756104e-06</internalNodes>
          <leafValues>
            -8.5639595985412598e-01 2.9328188300132751e-01</leafValues></_>
        <_>
          <internalNodes>
            0 -1 38 4.5831839088350534e-04</internalNodes>
          <leafValues>
            -7.9719972610473633e-01 3.3462396264076233e-01</leafValues></_>
        <_>
          <internalNodes>
            0 -1 3 -3.5268629435449839e-03</internalNodes>
          <leafValues>
            3.7341803312301636e-01 -7.5031828880310059e-01</leafValues></_></weakClassifiers></_>
    <!-- stage 10 -->
    <_>
      <maxWeakCount>4</maxWeakCount>
      <stageThreshold>-1.6269180774688721e+00</stageThreshold>
      <weakClassifiers>
        <_>
          <internalNodes>
            0 -1 13 1.4018565416336060e-01</internalNodes>
          <leafValues>
            -9.1017961502075195e-01 1.2244898080825806e-01</leafValues></_>
        <_>
          <internalNodes>
            0 -1 28 4.3099370668642223e-04</internalNodes>
          <leafValues>
            -9.0545016527175903e-01 -1.0656940937042236e-01</leafValues></_>
        <_>
          <internalNodes>
            0 -1 12 -4.5592398237204179e-05</internalNodes>
          <leafValues>
            -8.8571161031723022e-01 2.0570600032806396e-01</leafValues></_>
        <_>
          <internalNodes>
            0 -1 0 -1.1018145596608520e-03</internalNodes>
          <leafValues>
            -7.5708603858947754e-01 3.0646225810050964e-01</leafValues></_></weakClassifiers></_>
    <!-- stage 11 -->
    <_>
      <maxWeakCount>4</maxWeakCount>
      <stageThreshold>-1.3274660110473633e+00</stageThreshold>
      <weakClassifiers>
        <_>
          <internalNodes>
            0 -1 40 -3.0953221023082733e-02</internalNodes>
          <leafValues>
            7.0588237047195435e-01 -8.6679172515869141e-01</leafValues></_>
        <_>
          <internalNodes>
            0 -1 9 -2.9799599200487137e-02</internalNodes>
          <leafValues>
            2.4476307630538940e-01 -7.8191316127777100e-01</leafValues></_>
        <_>
          <internalNodes>
            0 -1 17 1.4935038052499294e-04</internalNodes>
          <leafValues>
            -1. 1.6583119332790375e-01</leafValues></_>
        <_>
          <internalNodes>
            0 -1 35 -9.1063062427565455e-05</internalNodes>
          <leafValues>
            -1. 1.5540768206119537e-01</leafValues></_></weakClassifiers></_>
    <!-- stage 12 -->
    <_>
      <maxWeakCount>4</maxWeakCount>
      <stageThreshold>-2.0479168891906738e+00</stageThreshold>
      <weakClassifiers>
        <_>
          <internalNodes>
            0 -1 47 5.2458301186561584e-02</internalNodes>
          <leafValues>
            -8.7793427705764771e-01 1.</leafValues></_>
        <_>
          <internalNodes>
            0 -1 22 9.4457566738128662e-02</internalNodes>
          <leafValues>
            -7.1198672056198120e-01 5.1196372509002686e-01</leafValues></_>
        <_>
          <internalNodes>
            0 -1 36 3.9904582081362605e-04</internalNodes>
          <leafValues>
            3.8789969682693481e-01 -7.8351694345474243e-01</leafValues></_>
        <_>
          <internalNodes>
            0 -1 7 -9.3402678612619638e-04</internalNodes>
          <leafValues>
            3.2552099227905273e-01 -9.3014091253280640e-01</leafValues></_></weakClassifiers></_></stages>
  <features>
    <_>
      <rects>
        <_>
          0 1 1 16 -1.</_>
        <_>
          0 9 1 8 2.</_></rects>
      <tilted>0</tilted></_>
    <_>
      <rects>
        <_>
          0 6 9 6 -1.</_>
        <_>
          3 6 3 6 3.</_></rects>
      <tilted>0</tilted></_>
    <_>
      <rects>
        <_>
          2 6 12 5 -1.</_>
        <_>
          6 6 4 5 3.</_></rects>
      <tilted>0</tilted></_>
    <_>
      <rects>
        <_>
          2 9 15 7 -1.</_>
        <_>
          7 9 5 7 3.</_></rects>
      <tilted>0</tilted></_>
    <_>
      <rects>
        <_>
          3 2 28 6 -1.</_>
        <_>
          3 4 28 2 3.</_></rects>
      <tilted>0</tilted></_>
    <_>
      <rects>
        <_>
          3 6 6 9 -1.</_>
        <_>
          6 6 3 9 2.</_></rects>
      <tilted>0</tilted></_>
    <_>
      <rects>
        <_>
          4 7 9 5 -1.</_>
        <_>
          7 7 3 5 3.</_></rects>
      <tilted>0</tilted></_>
    <_>
      <rects>
        <_>
          4 8 30 5 -1.</_>
        <_>
          14 8 10 5 3.</_></rects>
      <tilted>0</tilted></_>
    <_>
      <rects>
        <_>
          7 4 23 6 -1.</_>
        <_>
          7 6 23 2 3.</_></rects>
      <tilted>0</tilted></_>
    <_>
      <rects>
        <_>
          8 4 23 6 -1.</_>
        <_>
          8 6 23 2 3.</_></rects>
      <tilted>0</tilted></_>
    <_>
      <rects>
        <_>
          8 8 33 5 -1.</_>
        <_>
          19 8 11 5 3.</_></rects>
      <tilted>0</tilted></_>
    <_>
      <rects>
        <_>
          9 7 21 7 -1.</_>
        <_>
          16 7 7 7 3.</_></rects>
      <tilted>0</tilted></_>
    <_>
      <rects>
        <_>
          10 6 3 10 -1.</_>
        <_>
          11 6 1 10 3.</_></rects>
      <tilted>0</tilted></_>
    <_>
      <rects>
        <_>
          10 6 32 9 -1.</_>
        <_>
          10 9 32 3 3.</_></rects>
      <tilted>0</tilted></_>
    <_>
      <rects>
        <_>
          11 4 3 10 -1.</_>
        <_>
          12 4 1 10 3.</_></rects>
      <tilted>0</tilted></_>
    <_>
      <rects>
        <_>
          11 4 16 6 -1.</_>
        <_>
          11 6 16 2 3.</_></rects>
      <tilted>0</tilted></_>
    <_>
      <rects>
        <_>
          11 6 9 8 -1.</_>
        <_>
          14 6 3 8 3.</_></rects>
      <tilted>0</tilted></_>
    <_>
      <rects>
        <_>
          12 11 6 3 -1.</_>
        <_>
          14 11 2 3 3.</_></rects>
      <tilted>0</tilted></_>
    <_>
      <rects>
        <_>
          13 7 12 6 -1.</_>
        <_>
          17 7 4 6 3.</_></rects>
      <tilted>0</tilted></_>
    <_>
      <rects>
        <_>
          13 8 12 5 -1.</_>
        <_>
          17 8 4 5 3.</_></rects>
      <tilted>0</tilted></_>
    <_>
      <rects>
        <_>
          13 8 8 12 -1.</_>
        <_>
          13 8 4 6 2.</_>
        <_>
          17 14 4 6 2.</_></rects>
      <tilted>0</tilted></_>
    <_>
      <rects>
        <_>
          14 14 31 4 -1.</_>
        <_>
          14 16 31 2 2.</_></rects>
      <tilted>0</tilted></_>
    <_>
      <rects>
        <_>
          15 13 32 6 -1.</_>
        <_>
          15 16 32 3 2.</_></rects>
      <tilted>0</tilted></_>
    <_>
      <rects>
        <_>
          16 9 15 3 -1.</_>
        <_>
          16 10 15 1 3.</_></rects>
      <tilted>0</tilted></_>
    <_>
      <rects>
        <_>
          18 8 15 5 -1.</_>
        <_>
          23 8 5 5 3.</_></rects>
      <tilted>0</tilted></_>
    <_>
      <rects>
        <_>
          20 8 20 2 -1.</_>
        <_>
          30 8 10 2 2.</_></rects>
      <tilted>0</tilted></_>
    <_>
      <rects>
        <_>
          21 6 18 9 -1.</_>
        <_>
          21 9 18 3 3.</_></rects>
      <tilted>0</tilted></_>
    <_>
      <rects>
        <_>
          24 6 15 6 -1.</_>
        <_>
          29 6 5 6 3.</_></rects>
      <tilted>0</tilted></_>
    <_>
      <rects>
        <_>
          24 10 13 3 -1.</_>
        <_>
          24 11 13 1 3.</_></rects>
      <tilted>0</tilted></_>
    <_>
      <rects>
        <_>
          25 8 12 5 -1.</_>
        <_>
          29 8 4 5 3.</_></rects>
      <tilted>0</tilted></_>
    <_>
      <rects>
        <_>
          26 11 24 3 -1.</_>
        <_>
          38 11 12 3 2.</_></rects>
      <tilted>0</tilted></_>
    <_>
      <rects>
        <_>
          30 3 6 8 -1.</_>
        <_>
          30 3 3 4 2.</_>
        <_>
          33 7 3 4 2.</_></rects>
      <tilted>0</tilted></_>
    <_>
      <rects>
        <_>
          31 11 2 6 -1.</_>
        <_>
          31 14 2 3 2.</_></rects>
      <tilted>0</tilted></_>
    <_>
      <rects>
        <_>
          32 8 6 8 -1.</_>
        <_>
          34 8 2 8 3.</_></rects>
      <tilted>0</tilted></_>
    <_>
      <rects>
        <_>
          34 11 6 3 -1.</_>
        <_>
          36 11 2 3 3.</_></rects>
      <tilted>0</tilted></_>
    <_>
      <rects>
        <_>
          35 7 3 4 -1.</_>
        <_>
          36 7 1 4 3.</_></rects>
      <tilted>0</tilted></_>
    <_>
      <rects>
        <_>
          35 8 3 3 -1.</_>
        <_>
          36 8 1 3 3.</_></rects>
      <tilted>0</tilted></_>
    <_>
      <rects>
        <_>
          36 6 12 8 -1.</_>
        <_>
          40 6 4 8 3.</_></rects>
      <tilted>0</tilted></_>
    <_>
      <rects>
        <_>
          36 7 6 7 -1.</_>
        <_>
          38 7 2 7 3.</_></rects>
      <tilted>0</tilted></_>
    <_>
      <rects>
        <_>
          39 11 10 8 -1.</_>
        <_>
          39 11 5 4 2.</_>
        <_>
          44 15 5 4 2.</_></rects>
      <tilted>0</tilted></_>
    <_>
      <rects>
        <_>
          40 7 6 8 -1.</_>
        <_>
          42 7 2 8 3.</_></rects>
      <tilted>0</tilted></_>
    <_>
      <rects>
        <_>
          40 11 10 3 -1.</_>
        <_>
          45 11 5 3 2.</_></rects>
      <tilted>0</tilted></_>
    <_>
      <rects>
        <_>
          41 10 8 4 -1.</_>
        <_>
          45 10 4 4 2.</_></rects>
      <tilted>0</tilted></_>
    <_>
      <rects>
        <_>
          41 11 8 3 -1.</_>
        <_>
          45 11 4 3 2.</_></rects>
      <tilted>0</tilted></_>
    <_>
      <rects>
        <_>
          41 12 8 1 -1.</_>
        <_>
          45 12 4 1 2.</_></rects>
      <tilted>0</tilted></_>
    <_>
      <rects>
        <_>
          42 7 6 2 -1.</_>
        <_>
          44 7 2 2 3.</_></rects>
      <tilted>0</tilted></_>
    <_>
      <rects>
        <_>
          42 8 6 7 -1.</_>
        <_>
          45 8 3 7 2.</_></rects>
      <tilted>0</tilted></_>
    <_>
      <rects>
        <_>
          47 5 3 15 -1.</_>
        <_>
          47 10 3 5 3.</_></rects>
      <tilted>0</tilted></_></features></cascade>
</opencv_storage>
